-1.666621863842010498e-02 -1.461544819176197052e-02 -6.444223225116729736e-02 -3.643164783716201782e-02 -1.406164956279098988e-03 4.019873216748237610e-02 -4.249944351613521576e-03 -1.595265977084636688e-02 -6.180783268064260483e-03 -4.248198121786117554e-02 -3.358071297407150269e-02 -3.088443353772163391e-02 -6.922990828752517700e-02 5.302434042096138000e-02 -4.314665682613849640e-03 -8.781707845628261566e-03 5.647674668580293655e-03 -6.479971576482057571e-03 -5.475374683737754822e-02 1.193340984173119068e-03 4.420642554759979248e-02 7.390161603689193726e-02 4.808114841580390930e-02 -1.749273948371410370e-02 -2.710727229714393616e-02 6.329709291458129883e-02 7.441452704370021820e-03 -5.147840362042188644e-03 9.141282737255096436e-02 1.643203315325081348e-03 5.163972266018390656e-03 7.309227436780929565e-02 6.192173063755035400e-02 -8.230943232774734497e-02 2.929504960775375366e-02 -4.661934822797775269e-02 7.866311073303222656e-02 3.744564950466156006e-02 -6.817666441202163696e-02 3.589254245162010193e-02 3.787972405552864075e-02 3.267280990257859230e-03 7.373446971178054810e-02 3.031917475163936615e-02 2.916381880640983582e-02 -1.018160674721002579e-02 -2.640091627836227417e-02 -5.056138709187507629e-02 -3.984710201621055603e-02 2.557530067861080170e-02 -4.360773041844367981e-02 -3.622535150498151779e-03 -5.356224253773689270e-03 -4.099124670028686523e-02 -4.389891400933265686e-02 -5.313392356038093567e-02 7.843427360057830811e-02 6.062321364879608154e-02 2.505613304674625397e-02 -3.439443185925483704e-02 -4.196589812636375427e-03 5.245877429842948914e-02 5.914046987891197205e-02 7.385557144880294800e-02 -1.429972890764474869e-02 -4.716522991657257080e-02 2.591543644666671753e-02 1.168223191052675247e-02 3.505277633666992188e-02 4.226725175976753235e-02 2.580167353153228760e-02 4.173391684889793396e-02 -3.725818172097206116e-02 -1.234594918787479401e-02 7.752899825572967529e-02 -5.746386945247650146e-02 1.404514163732528687e-02 7.616610825061798096e-02 6.537012755870819092e-02 -3.581597656011581421e-02 -3.560140728950500488e-02 -5.673990771174430847e-02 3.537774458527565002e-02 3.723486885428428650e-02 8.148576132953166962e-03 -4.877869039773941040e-02 9.962132573127746582e-02 2.170758554711937904e-03 -3.888046741485595703e-02 -1.199379004538059235e-02 2.047377172857522964e-03 -9.341159462928771973e-02 1.012078858911991119e-02 -2.764006145298480988e-02 6.441725045442581177e-02 8.310166001319885254e-02 4.678954929113388062e-02 -1.714100502431392670e-02 1.727735798340290785e-05 -2.907704189419746399e-02 1.126631163060665131e-02 -1.620837301015853882e-02 2.987163141369819641e-02 6.678060442209243774e-02 -7.556915283203125000e-02 -1.589176990091800690e-02 7.226259447634220123e-03 1.355460099875926971e-02 1.518245437182486057e-03 -1.036334410309791565e-02 -5.506330635398626328e-03 -1.138723082840442657e-02 7.081544492393732071e-03 3.889899700880050659e-02 4.700007848441600800e-03 -2.906289882957935333e-02 3.478114306926727295e-02 5.000416561961174011e-02 3.428731486201286316e-02 -5.367267131805419922e-02 4.803825169801712036e-02 -4.297840967774391174e-02 -4.796827211976051331e-02 -4.781810194253921509e-02 1.255697160959243774e-01 -6.861479021608829498e-03 4.317205399274826050e-03 4.811916872859001160e-02 -7.186494767665863037e-02 -1.223591621965169907e-03 -3.245224058628082275e-02 9.936846792697906494e-03 -2.272798307240009308e-02 -6.559450924396514893e-02 1.869903993792831898e-03 -9.735050052404403687e-02 -4.382672160863876343e-02 -4.958064854145050049e-02 -3.391607105731964111e-02 2.047853078693151474e-03 5.090195685625076294e-02 -3.381963819265365601e-02 9.375812113285064697e-02 7.679876405745744705e-03 -6.656798720359802246e-02 1.030521690845489502e-01 -7.867786916904151440e-04 6.478094309568405151e-02 4.633856564760208130e-02 -1.293850224465131760e-02 -3.134443983435630798e-02 -3.230556380003690720e-03 -7.476275414228439331e-02 -6.731545180082321167e-02 -3.319273144006729126e-02 -7.898749411106109619e-02 1.438136305660009384e-02 -4.716062173247337341e-02 3.267315402626991272e-02 9.929595887660980225e-02 6.828380376100540161e-02 -4.777234978973865509e-03 -3.312064334750175476e-02 3.404844179749488831e-02 2.857926674187183380e-02 8.788742125034332275e-03 -4.418048635125160217e-02 -3.387206792831420898e-02 -4.494895040988922119e-02 4.657665733247995377e-03 4.486300796270370483e-02 2.096876502037048340e-02 -6.437534093856811523e-02 -1.985050551593303680e-02 -5.782159417867660522e-02 -5.358901992440223694e-02 8.563982322812080383e-03 5.087907612323760986e-02 8.410771936178207397e-02 1.923594996333122253e-02 3.070386126637458801e-02 -7.925087958574295044e-02 -6.008388102054595947e-02 -2.860004641115665436e-02 -8.595055341720581055e-02 -3.213565051555633545e-02 2.631509490311145782e-02 8.875331841409206390e-03 -1.669719256460666656e-02 4.624638333916664124e-02 -1.218212209641933441e-02 5.219316482543945312e-02 -8.187471888959407806e-03 -4.516030848026275635e-02 -1.672537997364997864e-02 4.572417214512825012e-02 8.369591087102890015e-02 3.302915021777153015e-02 -9.751885384321212769e-02 -2.265417249873280525e-03 -3.614600282162427902e-03 -1.081092804670333862e-01 -5.249640345573425293e-02 -5.992380529642105103e-02 -3.311203047633171082e-02 -3.050808608531951904e-02 -3.339993953704833984e-02 6.984948366880416870e-02 9.170383214950561523e-03 -6.439708173274993896e-03 5.755803082138299942e-03 -1.203147973865270615e-02 5.095255561172962189e-03 -7.016613148152828217e-03 -6.943950802087783813e-02 -5.679270718246698380e-03 -2.699039317667484283e-02 7.750582695007324219e-02 7.554692681878805161e-03 1.614569127559661865e-02 5.721007008105516434e-03 1.450344547629356384e-02 -8.693788945674896240e-02 6.151916459202766418e-02 -8.684013970196247101e-03 3.526136279106140137e-02 -1.911319850478321314e-04 6.574220955371856689e-02 2.394967339932918549e-02 -9.726620279252529144e-03 -1.438822131603956223e-02 -1.709897816181182861e-02 -3.562062978744506836e-02 -3.292804583907127380e-02 -8.842883631587028503e-03 1.032554544508457184e-02 -4.683865234255790710e-02 9.469056501984596252e-03 -2.241837978363037109e-02 3.723234683275222778e-02 -7.078747451305389404e-02 -4.742044955492019653e-02 -6.134629622101783752e-02 1.535850483924150467e-02 1.575241982936859131e-02 -4.457895085215568542e-02 -1.968322321772575378e-03 -4.817664623260498047e-02 -1.637850422412157059e-03 -4.687761515378952026e-02 6.097796373069286346e-03 2.178066410124301910e-02 -9.093081951141357422e-02 -1.170676276087760925e-01 -3.433880954980850220e-02 -6.617284566164016724e-02 -1.761098508723080158e-03 -8.651277050375938416e-03 -8.190615475177764893e-02 2.038986235857009888e-02 -6.969294045120477676e-03 -4.460454359650611877e-02 5.216125771403312683e-02 -2.441750653088092804e-02 2.274259738624095917e-02 6.401024013757705688e-02 7.779494673013687134e-02 -1.757008209824562073e-02 6.198803335428237915e-02 -1.043446362018585205e-01 7.107388973236083984e-02 1.192892342805862427e-02 4.696397483348846436e-02 4.648251831531524658e-02 3.785667940974235535e-02 -7.323899865150451660e-02 6.322500109672546387e-02 -1.590492762625217438e-02 1.484495960175991058e-02 -2.138717565685510635e-03 -6.833530031144618988e-03 -9.978749603033065796e-02 -5.130732804536819458e-02 -8.069258183240890503e-02 -4.522392526268959045e-02 -1.390954479575157166e-02 -5.012955889105796814e-02 -6.704086810350418091e-02 -1.780240423977375031e-02 -2.174272947013378143e-02 9.714220650494098663e-03 -7.453469932079315186e-02 7.458717375993728638e-02 2.563697285950183868e-02 -4.445067420601844788e-02 -5.111578479409217834e-02 2.539342083036899567e-02 -6.495334953069686890e-02 -6.219666451215744019e-02 7.755204569548368454e-03 1.338049490004777908e-02 1.589090004563331604e-02 4.231376573443412781e-03 7.570775924250483513e-04 1.611960679292678833e-02 -1.499501639045774937e-03 7.129537314176559448e-02 6.119646504521369934e-02 -3.538545221090316772e-02 2.592451497912406921e-02 -5.405594781041145325e-02 7.400020956993103027e-02 3.896683454513549805e-02 1.369682047516107559e-02 -8.788845501840114594e-03 8.124708384275436401e-02 -3.835779428482055664e-02 2.262382069602608681e-03 2.579280920326709747e-02 -3.082505427300930023e-03 -5.883384868502616882e-02 1.684388890862464905e-02 1.362738199532032013e-02 9.753310680389404297e-02 -1.196925714612007141e-02 -3.108722716569900513e-02 5.062332749366760254e-02 -3.511990979313850403e-02 -1.980174519121646881e-02 -4.149229079484939575e-02 1.615430563688278198e-01 1.046042237430810928e-02 1.001494452357292175e-01 -7.096741348505020142e-02 -4.615477472543716431e-02 2.127839252352714539e-02 3.083350881934165955e-02 -4.735331237316131592e-02 1.563785970211029053e-02 -1.188420597463846207e-02 -2.538678981363773346e-02 -2.553220093250274658e-02 1.227524783462285995e-02 -4.398827999830245972e-02 -9.831354953348636627e-03 -5.723387748003005981e-02 2.395408228039741516e-02 -1.982305012643337250e-02 -2.416574209928512573e-02 -3.529588133096694946e-02 1.185916643589735031e-02 5.842547491192817688e-02 4.199486598372459412e-02 3.277413547039031982e-02 -2.363954111933708191e-02 -1.141743268817663193e-02 -6.229276210069656372e-02 1.971374265849590302e-02 1.028907224535942078e-01 -5.542800761759281158e-03 7.676908373832702637e-02 3.600735217332839966e-02 2.992160245776176453e-02 2.233573608100414276e-02 3.173802047967910767e-02 2.879040129482746124e-02 -1.002366244792938232e-01 -3.994290903210639954e-02 2.545066177845001221e-02 3.526868298649787903e-02 -2.920141071081161499e-02 -3.992816433310508728e-03 -6.363389082252979279e-03 -3.255167230963706970e-02 3.801805898547172546e-02 -5.877184215933084488e-03 3.559536859393119812e-02 -7.700738031417131424e-03 -1.790670305490493774e-02 2.349543012678623199e-02 3.630830347537994385e-02 -6.978753954172134399e-02 -5.301215127110481262e-02 7.102236151695251465e-02 -7.060370594263076782e-02 1.142560783773660660e-02 -5.712580680847167969e-02 6.569789350032806396e-02 -2.412108331918716431e-02 5.099416896700859070e-02 -7.624039798974990845e-02 6.152914464473724365e-02 1.173982769250869751e-02 -3.440622985363006592e-02 -4.647021368145942688e-02 1.431546080857515335e-02 -2.116798795759677887e-02 2.884227037429809570e-02 -1.389225479215383530e-02 -6.376492232084274292e-02 -7.860405743122100830e-02 9.709643200039863586e-03 -4.310870170593261719e-02 8.329022675752639771e-03 -5.912527441978454590e-02 4.512707889080047607e-02 -5.208178609609603882e-02 -6.654004007577896118e-02 1.029010862112045288e-01 6.016483530402183533e-03 4.528167471289634705e-02 -2.436460182070732117e-02 -6.781885027885437012e-02 -1.820685155689716339e-02 -5.917369853705167770e-03 -4.532342404127120972e-02 -2.546869404613971710e-02 5.480786040425300598e-02 6.357262376695871353e-03 6.606281735002994537e-03 3.865510970354080200e-02 9.254659526050090790e-03 -2.159419003874063492e-03 7.156514376401901245e-02 -4.756802809424698353e-04 3.142106533050537109e-02 2.922739833593368530e-02 6.977995485067367554e-02 -1.784627325832843781e-02 -2.676918916404247284e-02 -9.553183801472187042e-03 -7.205692678689956665e-02 2.182250097393989563e-02 2.832582592964172363e-02 -2.651188708841800690e-02 -7.502437382936477661e-02 -9.976382134482264519e-04 -6.240239739418029785e-02 -5.840857326984405518e-02 3.772479668259620667e-02 -1.748591661453247070e-02 -1.070946920663118362e-02 3.913916647434234619e-03 3.784496337175369263e-02 3.411355242133140564e-02 -3.084747493267059326e-02 4.825314506888389587e-02 -3.425339469686150551e-03 6.038548424839973450e-02 7.538053207099437714e-03 -1.400890648365020752e-01 -1.249199509620666504e-01 2.120617032051086426e-02 7.169163972139358521e-02 -1.196363270282745361e-01 -3.478360595181584358e-03 8.522896096110343933e-03 1.206358079798519611e-03 -1.808810979127883911e-02 6.647002696990966797e-02 2.107052877545356750e-02 -1.104439124464988708e-01 -5.688877031207084656e-02 1.011333018541336060e-01 5.182020738720893860e-02 -4.615912958979606628e-02 2.096859738230705261e-02 -8.957998454570770264e-02 -1.536795869469642639e-02 -1.439450774341821671e-02 2.475545182824134827e-02 2.195079810917377472e-03 2.555542625486850739e-02 -2.829399332404136658e-02 1.540432125329971313e-02 -4.125437140464782715e-02 -2.123573608696460724e-02 -2.330257743597030640e-02 2.376616187393665314e-02 1.594331674277782440e-02 5.492031108587980270e-03 2.760718343779444695e-03 -8.523269742727279663e-02 -1.842376403510570526e-02 -2.100215665996074677e-02 2.633146941661834717e-03 8.539224416017532349e-02 -2.151826955378055573e-02 -3.680835664272308350e-02 -9.603887796401977539e-03 2.647725492715835571e-02 -6.905175000429153442e-02 -4.946625325828790665e-03 6.103081628680229187e-02 1.671293564140796661e-02 -1.409687753766775131e-02 4.541286081075668335e-02 2.673606015741825104e-02 -2.887781523168087006e-02 4.530452564358711243e-02 1.395019702613353729e-02 -2.119480166584253311e-03 -6.350613385438919067e-02 7.611826527863740921e-03 2.922355011105537415e-02 7.728761527687311172e-03 4.279359802603721619e-02 -6.683592498302459717e-02 6.987634301185607910e-02 -1.861010864377021790e-02 -2.571817487478256226e-02 3.450872376561164856e-02 4.691674932837486267e-02 -3.023296594619750977e-02 2.464963868260383606e-02 1.907600089907646179e-02 1.738009043037891388e-02 1.481621875427663326e-03 -5.154547095298767090e-02 -1.140764504671096802e-01 -2.299904450774192810e-02 -4.808675125241279602e-02 6.799797527492046356e-03 2.901117876172065735e-02 -2.403485402464866638e-02 -1.828248053789138794e-02 4.493099078536033630e-02 -4.125985433347523212e-04 -1.028502956032752991e-01 -5.902403220534324646e-02 -2.423638664186000824e-02 2.221013791859149933e-02 -8.703886531293392181e-03 -5.230545531958341599e-03 5.087295919656753540e-02 -1.506759412586688995e-02 -2.686638198792934418e-02 4.954584315419197083e-02 -1.712554658297449350e-04 -1.490505039691925049e-02 5.361721664667129517e-02 -1.168012898415327072e-02 6.432017683982849121e-02 -4.861927032470703125e-02 1.180151998996734619e-01 -3.792807925492525101e-03 -2.351849712431430817e-02 4.020372405648231506e-02 7.653763145208358765e-02 9.689436852931976318e-02 -7.449153065681457520e-02 -4.824018105864524841e-02 1.912097632884979248e-02 5.214783176779747009e-02 6.987737864255905151e-02 5.061359703540802002e-02 -2.393073169514536858e-03 1.597805880010128021e-02 4.357484355568885803e-02 -1.653319410979747772e-02 -1.044558733701705933e-01 -1.838552951812744141e-02 3.121708892285823822e-02 1.139242388308048248e-02 4.344133287668228149e-02 6.338209658861160278e-02 -6.855197995901107788e-02 6.534095853567123413e-02 -3.126864880323410034e-02 5.592379346489906311e-02 -1.899170503020286560e-02 2.335246652364730835e-02 7.157133892178535461e-03 7.448337972164154053e-02 -9.163806587457656860e-02 -5.707641132175922394e-03 -2.493965625762939453e-02 -2.906688302755355835e-02 3.949574660509824753e-03 -7.937517948448657990e-03 -6.423744559288024902e-02 -5.985055584460496902e-03 -3.878416121006011963e-02 -2.602631412446498871e-02 -5.686301738023757935e-02 -5.316863209009170532e-02 2.807434415444731712e-03 -8.902277797460556030e-03 -5.494325608015060425e-02 -2.998831309378147125e-02 3.308983519673347473e-02 3.836638852953910828e-02 -6.387088447809219360e-02 -7.550825923681259155e-02 5.632391199469566345e-02 2.780730463564395905e-02 2.979050390422344208e-02 3.874579817056655884e-02 -5.019802227616310120e-02 -4.888310655951499939e-02 -8.107827743515372276e-04 -1.522486843168735504e-02 -3.554598242044448853e-02 -3.626319020986557007e-02 3.775730729103088379e-02 3.716409951448440552e-02 -2.062430419027805328e-02 2.432637847959995270e-02 -1.951117441058158875e-02 2.696193940937519073e-02 1.650314778089523315e-02 3.646740317344665527e-02 6.539952754974365234e-02 1.795641891658306122e-02 1.429746858775615692e-02 -4.384325817227363586e-02 -6.999103352427482605e-03 5.752908810973167419e-02 -2.249937038868665695e-03 8.148008957505226135e-03 6.132521107792854309e-02 -3.065195493400096893e-02 -7.086009532213211060e-02 9.805332124233245850e-02 -8.945283293724060059e-02 6.588606536388397217e-02 1.579234190285205841e-02 -1.759995706379413605e-02 3.097322769463062286e-02 1.172601804137229919e-01 3.550317604094743729e-03 -4.128919541835784912e-02 -4.957846365869045258e-03 -7.468760758638381958e-02 7.744887471199035645e-02 2.968674600124359131e-01 6.845504511147737503e-03 -3.006523661315441132e-02 -2.962404489517211914e-02 1.258587650954723358e-02 -4.137846827507019043e-02 1.582097448408603668e-02 9.441709518432617188e-02 2.415857091546058655e-02 -2.342408150434494019e-02 -1.039008889347314835e-02 -2.290836535394191742e-02 1.486526057124137878e-02 2.337860874831676483e-02 6.138939037919044495e-02 -1.394034363329410553e-02 -7.302676886320114136e-02 -3.297688066959381104e-02 -1.642207615077495575e-02 -3.680186346173286438e-02 6.269177049398422241e-02 1.792110502719879150e-02 1.180214900523424149e-02 -5.867886915802955627e-02 -9.227164089679718018e-02 -1.354577578604221344e-02 1.129445433616638184e-02 -1.854524202644824982e-02 2.797934226691722870e-02 2.407282404601573944e-02 -2.558659575879573822e-02 -6.156140565872192383e-02 1.020115986466407776e-02 3.524739667773246765e-02 1.501110848039388657e-02 -7.778815925121307373e-02 6.783570349216461182e-02 -3.754860907793045044e-02 -4.797602072358131409e-02 -9.777909144759178162e-04 -5.728602409362792969e-02 7.587799429893493652e-02 -3.582336707040667534e-03 1.912563294172286987e-02 3.338344395160675049e-02 1.413869019597768784e-02 3.399987146258354187e-02 3.344223275780677795e-02 3.816911950707435608e-03 -3.060348518192768097e-02 4.372438415884971619e-02 -3.843870759010314941e-02 -3.289348259568214417e-02 -8.681135624647140503e-02 1.303408108651638031e-02 -7.832805067300796509e-02 -6.479002535343170166e-02 5.281230807304382324e-02 6.029573082923889160e-02 -2.331078611314296722e-02 -1.634537428617477417e-02 6.806963682174682617e-02 3.614172711968421936e-02 6.101644132286310196e-03 -3.883141279220581055e-02 -5.816547945141792297e-02 -7.222840562462806702e-03 4.990480467677116394e-02 5.858524888753890991e-02 1.810624636709690094e-02 -1.701940596103668213e-02 3.122889250516891479e-02 1.940915128216147423e-03 -1.417966373264789581e-02 2.827820368111133575e-02 -9.337197989225387573e-03 2.084580808877944946e-02 -1.261742226779460907e-02 -1.767553947865962982e-02 -2.973712608218193054e-02 -4.723765328526496887e-02 1.801366545259952545e-02 -2.795887179672718048e-03 -8.418262004852294922e-02 -5.613992456346750259e-03 5.736545100808143616e-02 3.164027631282806396e-02 3.218307346105575562e-02 -1.199490651488304138e-01 8.805216103792190552e-02 -5.670158565044403076e-02 4.290202260017395020e-02 -9.713891195133328438e-04 -5.266888439655303955e-02 -6.422260403633117676e-02 6.030719354748725891e-02 -5.856148898601531982e-03 -2.041023410856723785e-02 5.701065063476562500e-02 2.703667804598808289e-02 -3.953883796930313110e-02 6.121231615543365479e-02 4.727663472294807434e-03 2.529115602374076843e-02 -5.020577087998390198e-02 -6.696037948131561279e-02 2.899308688938617706e-02 1.474605686962604523e-02 -2.060301229357719421e-02 7.491179555654525757e-02 -3.218580409884452820e-02 4.664504900574684143e-02 -4.746351018548011780e-02 -8.100825548171997070e-02 -3.264329209923744202e-02 -1.168403103947639465e-01 5.496400408446788788e-03 5.793984979391098022e-02 -6.651722639799118042e-02 2.183694206178188324e-02 3.214957937598228455e-02 6.304487586021423340e-02 -1.023789569735527039e-01 6.115553528070449829e-02 -1.288812905550003052e-01 -2.606533095240592957e-02 -5.878790467977523804e-02 -2.813541516661643982e-02 1.350624393671751022e-02 -6.096585653722286224e-03 5.631604045629501343e-02 -2.266440726816654205e-02 3.659187257289886475e-02
-1.974762976169586182e-02 3.246193751692771912e-02 2.740182541310787201e-02 9.007908403873443604e-02 2.231572940945625305e-02 -1.199915641336701810e-04 -2.497931942343711853e-03 5.872820969671010971e-03 9.182015433907508850e-03 8.523834496736526489e-02 2.659106627106666565e-02 -9.176989085972309113e-03 6.178881227970123291e-02 1.526901125907897949e-02 -1.051319204270839691e-02 -4.641579091548919678e-02 -1.032015308737754822e-02 -8.400096558034420013e-03 1.354405097663402557e-02 -6.293572951108217239e-03 -3.666256368160247803e-02 -6.587004661560058594e-02 -6.317305564880371094e-02 -3.688090015202760696e-03 -2.259926684200763702e-02 -1.902391575276851654e-02 -4.025425389409065247e-02 2.099812554661184549e-04 -4.651013016700744629e-02 1.763354986906051636e-02 -4.933772608637809753e-02 -7.094892114400863647e-02 -4.481039568781852722e-02 9.656311571598052979e-02 -6.022308766841888428e-02 4.484968259930610657e-02 -8.939003944396972656e-02 -3.162963315844535828e-02 6.987004727125167847e-02 -3.036034479737281799e-02 -3.118988685309886932e-02 2.456865040585398674e-03 -7.248857617378234863e-02 -2.433945424854755402e-02 1.456500869244337082e-02 -4.842017590999603271e-02 1.505723409354686737e-02 -1.290921773761510849e-02 3.757233172655105591e-02 1.383139006793498993e-02 -1.500309258699417114e-02 5.975710228085517883e-02 3.607123717665672302e-02 5.662825703620910645e-02 3.529769554734230042e-02 4.312931746244430542e-02 -6.686387211084365845e-02 -4.727134853601455688e-02 5.780317354947328568e-03 4.411950334906578064e-02 3.926185891032218933e-02 -2.964982762932777405e-02 -7.040160149335861206e-02 -6.149477511644363403e-02 5.404577404260635376e-02 3.599887713789939880e-02 -2.849664911627769470e-02 1.882325595943257213e-04 -2.551109157502651215e-02 -2.095241099596023560e-02 1.559548312798142433e-03 -7.818470150232315063e-02 6.435459852218627930e-02 -7.080682087689638138e-03 -5.783761292695999146e-02 1.127308513969182968e-02 -7.419252302497625351e-03 -3.813156485557556152e-02 -2.073184773325920105e-02 3.375550359487533569e-02 4.133044183254241943e-02 6.219906359910964966e-02 -3.498488292098045349e-02 -2.197308652102947235e-02 2.031189389526844025e-02 1.317890360951423645e-02 -6.981363892555236816e-02 3.649462386965751648e-02 5.250586569309234619e-02 -2.848704531788825989e-02 1.135501358658075333e-02 5.408848449587821960e-02 1.182319037616252899e-02 5.677807703614234924e-02 -4.077133163809776306e-02 -5.526814609766006470e-02 -3.431236371397972107e-02 -1.918698102235794067e-02 3.679160401225090027e-02 2.363139018416404724e-02 -4.692415532190352678e-04 2.964586019515991211e-02 -2.917975187301635742e-02 -7.667119801044464111e-02 4.000442102551460266e-02 1.319505088031291962e-02 2.592001669108867645e-02 -1.205539610236883163e-02 -6.642200984060764313e-03 -3.306305152364075184e-04 -3.715343400835990906e-02 6.195251271128654480e-02 1.017139642499387264e-03 -4.515161365270614624e-02 2.136404858902096748e-03 -1.124477386474609375e-02 -5.771077424287796021e-02 -5.675504729151725769e-02 -3.358998149633407593e-02 8.118160068988800049e-02 -8.058764040470123291e-02 1.727945357561111450e-02 1.118863839656114578e-02 9.193132817745208740e-02 -1.088070869445800781e-01 8.658993989229202271e-03 -2.491017989814281464e-02 -1.099485903978347778e-02 3.687607124447822571e-02 2.112854458391666412e-02 2.960203401744365692e-02 -2.183971554040908813e-02 -1.712236180901527405e-02 6.757769733667373657e-02 -4.228528589010238647e-02 7.921678572893142700e-02 5.548814684152603149e-02 5.907937139272689819e-02 2.930836752057075500e-02 -7.269713096320629120e-03 -2.244077436625957489e-02 4.807559307664632797e-03 -8.117662370204925537e-02 2.844218909740447998e-02 1.718201860785484314e-02 -1.154240593314170837e-01 2.506734058260917664e-02 -1.154068559408187866e-01 -1.259608846157789230e-02 2.575213275849819183e-02 1.303336932323873043e-03 5.880448222160339355e-02 1.855361089110374451e-02 2.591563202440738678e-02 4.078419506549835205e-02 5.446730554103851318e-02 -2.768049575388431549e-02 3.101442940533161163e-03 1.721983030438423157e-02 -8.396932482719421387e-02 -6.012305617332458496e-02 -6.559192668646574020e-03 4.576417431235313416e-02 -6.888552010059356689e-02 -2.852642210200428963e-03 5.299500003457069397e-02 1.631474681198596954e-02 6.598568055778741837e-03 4.194437339901924133e-02 5.732840392738580704e-03 -6.351727060973644257e-04 -4.966539796441793442e-03 2.585197985172271729e-02 2.640958316624164581e-02 2.341327257454395294e-02 1.237644348293542862e-02 -1.678519695997238159e-02 -9.000783786177635193e-03 -6.412389874458312988e-02 3.014964610338211060e-02 -1.974280737340450287e-02 4.284750297665596008e-02 7.299217581748962402e-02 8.307012170553207397e-02 6.661125272512435913e-02 3.016593679785728455e-02 -6.189967691898345947e-02 3.216587752103805542e-02 2.727264352142810822e-02 -4.598205909132957458e-02 2.302803099155426025e-02 -2.257524803280830383e-02 4.787573590874671936e-02 3.007894195616245270e-02 1.268786843866109848e-02 -1.338211732218042016e-04 -4.664037749171257019e-02 -2.500809915363788605e-02 6.479952484369277954e-02 -1.119864359498023987e-02 -1.783697749488055706e-03 8.665930479764938354e-02 6.541257351636886597e-02 5.449929460883140564e-02 -2.720026485621929169e-02 -2.614113688468933105e-02 4.978743940591812134e-02 -6.053830310702323914e-02 1.317905727773904800e-02 -4.385471716523170471e-02 -3.036922402679920197e-02 9.386854246258735657e-03 -1.927240192890167236e-02 -2.719898521900177002e-02 5.729589238762855530e-02 -2.850127778947353363e-02 1.272041699849069118e-03 -4.646166786551475525e-02 2.137363702058792114e-02 2.361502870917320251e-02 2.840827405452728271e-02 -4.411728587001562119e-03 3.636827319860458374e-02 -4.678753763437271118e-02 -7.178098428994417191e-03 4.342968575656414032e-03 1.795820193365216255e-03 -1.675390265882015228e-02 5.261582788079977036e-03 2.229397743940353394e-02 9.020325960591435432e-04 -3.528324514627456665e-02 7.847825437784194946e-02 -2.315961057320237160e-03 1.615240424871444702e-02 3.874483704566955566e-02 1.110797654837369919e-02 5.625619669444859028e-04 3.582641109824180603e-02 -4.072651267051696777e-02 2.645768970251083374e-02 6.059995666146278381e-02 1.079011037945747375e-01 4.269517585635185242e-02 -9.728328324854373932e-03 1.338977087289094925e-02 2.474661543965339661e-02 -1.181965414434671402e-02 -2.170267887413501740e-02 6.772122532129287720e-02 1.843648031353950500e-02 -2.202722616493701935e-02 7.055104523897171021e-02 8.421133458614349365e-02 -5.167344585061073303e-03 1.157292872667312622e-01 -2.565380558371543884e-02 1.972686499357223511e-02 7.813663035631179810e-02 -3.014124184846878052e-02 -8.629136718809604645e-03 4.443704336881637573e-02 -3.727469593286514282e-02 -9.095607325434684753e-03 -3.052709251642227173e-02 -7.610180974006652832e-02 -5.828910693526268005e-02 2.421939559280872345e-02 -1.939189620316028595e-02 1.208907142281532288e-01 -5.896292254328727722e-02 -6.294384598731994629e-02 -1.118557155132293701e-02 -4.621781036257743835e-02 1.788523234426975250e-02 6.438560783863067627e-02 -3.622026368975639343e-02 9.151940234005451202e-03 -2.257957868278026581e-02 -8.759409189224243164e-03 6.966754794120788574e-02 8.263295143842697144e-02 5.092299357056617737e-02 4.657282680273056030e-02 7.408519834280014038e-02 -1.652794145047664642e-02 9.436132013797760010e-02 6.126634776592254639e-02 7.163034379482269287e-02 8.559703826904296875e-03 -2.730639837682247162e-02 2.977430075407028198e-02 -4.703715443611145020e-02 -6.134873628616333008e-02 9.473508223891258240e-03 6.770869344472885132e-02 -3.419652953743934631e-02 1.152445748448371887e-02 5.938361585140228271e-02 1.851498335599899292e-02 -6.506697833538055420e-02 -2.529587037861347198e-02 7.359836716204881668e-03 1.526275835931301117e-02 -2.252174727618694305e-02 -9.509254246950149536e-03 -5.337161570787429810e-02 -5.643776804208755493e-02 6.118525937199592590e-02 -2.475537918508052826e-02 5.596133880317211151e-03 -2.856915257871150970e-02 -7.728364318609237671e-02 -2.298206277191638947e-02 -1.183844823390245438e-02 -1.293501257896423340e-01 -2.116379514336585999e-02 -2.053673192858695984e-02 -3.238167613744735718e-02 1.322499476373195648e-02 2.231119573116302490e-02 -3.573713824152946472e-02 -2.781298756599426270e-02 -7.086001336574554443e-02 -4.228494688868522644e-02 5.597799643874168396e-02 -4.437422007322311401e-02 2.867262996733188629e-02 2.680708840489387512e-02 8.351244032382965088e-02 -1.343877166509628296e-01 -4.020536318421363831e-02 -1.084362417459487915e-01 5.332247540354728699e-02 5.879102274775505066e-02 2.014654874801635742e-02 -8.832686394453048706e-02 3.696032240986824036e-02 5.503381602466106415e-03 -2.295427024364471436e-03 3.648233041167259216e-02 1.370388269424438477e-02 5.334842018783092499e-03 6.128476187586784363e-02 1.964282989501953125e-02 4.815086722373962402e-02 -2.688111551105976105e-02 4.320859536528587341e-02 -1.290763076394796371e-02 1.014927700161933899e-01 2.582933753728866577e-02 -5.865078419446945190e-02 -1.754480227828025818e-02 2.592794783413410187e-02 -8.287119679152965546e-03 4.367035999894142151e-02 5.899711698293685913e-02 -4.926649481058120728e-02 -8.266899734735488892e-02 1.488270610570907593e-02 -3.530555590987205505e-02 1.909180078655481339e-03 1.553470920771360397e-02 -1.455011806683614850e-04 -1.385166589170694351e-02 -5.331766977906227112e-02 6.942159682512283325e-02 -5.899945739656686783e-03 2.564638666808605194e-02 -3.236418962478637695e-02 5.297301709651947021e-02 -6.937615573406219482e-03 2.390045300126075745e-02 4.881210625171661377e-02 -7.969363033771514893e-02 3.906907513737678528e-03 -4.169388487935066223e-02 2.860755287110805511e-02 -1.425861380994319916e-02 1.495765242725610733e-02 -5.277476459741592407e-02 5.351557955145835876e-02 2.642059326171875000e-02 -4.248170554637908936e-02 4.301675409078598022e-02 -4.243690893054008484e-02 6.595225632190704346e-02 -7.748839259147644043e-02 -3.218491002917289734e-02 -2.001000754535198212e-02 4.992242157459259033e-02 -6.538488715887069702e-02 -2.605712227523326874e-02 4.757556691765785217e-02 -1.007543038576841354e-02 -1.606959104537963867e-02 5.319849774241447449e-02 -7.669726386666297913e-03 1.143261510878801346e-02 6.801428645849227905e-02 3.917842358350753784e-02 1.797703793272376060e-03 7.111049722880125046e-03 3.864269703626632690e-02 5.434922873973846436e-02 -1.075260248035192490e-02 7.377938926219940186e-02 5.686497688293457031e-02 -4.754994064569473267e-02 -1.332181971520185471e-02 -3.505846485495567322e-02 -3.296069055795669556e-02 5.578254908323287964e-02 -1.657624170184135437e-02 -1.160746905952692032e-03 4.752052947878837585e-02 4.316855594515800476e-02 -8.031431585550308228e-02 2.728993631899356842e-02 9.523104876279830933e-03 4.889602772891521454e-03 -1.673600822687149048e-02 -1.201406307518482208e-02 -8.053228259086608887e-02 -5.185237154364585876e-02 -4.585514590144157410e-02 7.767072878777980804e-03 -4.206608235836029053e-02 2.136120805516839027e-03 -8.504655212163925171e-03 3.025270439684391022e-02 1.952054351568222046e-02 -2.294502779841423035e-02 -4.068403318524360657e-02 3.664199635386466980e-02 5.664547905325889587e-02 -9.907405823469161987e-03 6.877914816141128540e-02 5.725142732262611389e-02 -1.616407930850982666e-02 -3.644484654068946838e-02 -6.312133278697729111e-03 -1.227978523820638657e-02 -4.708129912614822388e-02 -3.034227341413497925e-02 3.427768498659133911e-02 -3.739298135042190552e-02 -2.339318161830306053e-03 -9.386099874973297119e-02 -2.325838804244995117e-02 1.540323197841644287e-01 6.530968099832534790e-02 -2.677037008106708527e-02 -5.216913297772407532e-02 8.941715210676193237e-02 -5.650543421506881714e-02 -1.322608627378940582e-02 2.050309069454669952e-02 -1.214043051004409790e-02 -8.835739642381668091e-02 -6.711032986640930176e-02 7.949575781822204590e-02 4.409538209438323975e-02 -9.303037077188491821e-02 -7.940296083688735962e-02 2.242243848741054535e-02 5.522098392248153687e-03 9.204155206680297852e-02 -1.434611342847347260e-02 3.452670574188232422e-02 3.419213369488716125e-02 -1.931388629600405693e-03 -2.616872265934944153e-02 1.864980719983577728e-02 -5.663478001952171326e-02 9.274319745600223541e-04 1.392734557157382369e-04 -1.164894551038742065e-03 -4.401427507400512695e-02 1.559905335307121277e-02 -2.178407087922096252e-02 2.679997589439153671e-03 6.166159734129905701e-02 2.480706200003623962e-02 3.655916824936866760e-02 -3.406947245821356773e-03 -1.133926957845687866e-01 3.084810078144073486e-02 1.838140189647674561e-02 -2.375044394284486771e-03 -4.125162959098815918e-02 5.935583636164665222e-02 -1.433795318007469177e-02 -3.550726920366287231e-02 3.207709407433867455e-03 -2.380437031388282776e-02 -3.466336755082011223e-03 2.434711903333663940e-02 1.423520222306251526e-02 -4.842940717935562134e-02 -2.475366182625293732e-02 3.330162540078163147e-02 6.941217929124832153e-02 -1.016637403517961502e-02 -7.999960333108901978e-03 -1.292760204523801804e-02 -4.908762499690055847e-02 4.523550719022750854e-02 -5.134108662605285645e-02 5.866459757089614868e-02 4.543125256896018982e-02 -8.707567118108272552e-03 -5.875150859355926514e-02 1.781766861677169800e-02 -1.416265033185482025e-02 -4.904179647564888000e-02 -4.490955546498298645e-02 -1.302053127437829971e-02 2.723423950374126434e-02 6.556424498558044434e-02 4.323646426200866699e-02 3.639061376452445984e-02 -4.657274484634399414e-02 -8.605978451669216156e-03 3.798415511846542358e-02 -8.146730251610279083e-03 -2.055393904447555542e-02 2.716636471450328827e-02 6.084330007433891296e-02 4.347920790314674377e-02 1.653620600700378418e-02 -9.143495932221412659e-03 3.559310222044587135e-03 3.623859584331512451e-02 -3.223125264048576355e-02 -4.278286360204219818e-03 -1.076259650290012360e-02 -2.256823517382144928e-02 -6.909304298460483551e-03 8.583392947912216187e-03 -3.876220807433128357e-02 1.106860581785440445e-02 -5.434222891926765442e-02 5.374411493539810181e-02 -6.856865435838699341e-02 -1.478760736063122749e-03 3.676042426377534866e-03 -4.412953183054924011e-02 -2.110708132386207581e-02 -5.259796231985092163e-02 5.105159059166908264e-02 3.094449080526828766e-02 -3.683174401521682739e-02 1.279883203096687794e-03 -1.653482206165790558e-02 -8.355908095836639404e-02 2.114980481564998627e-02 2.964775823056697845e-02 -4.964234307408332825e-02 2.751558646559715271e-02 1.372090727090835571e-01 8.958375081419944763e-03 8.678517770022153854e-04 -1.558776572346687317e-02 -1.492244191467761993e-02 -2.141422033309936523e-02 5.397982150316238403e-02 -3.960809856653213501e-02 6.006443127989768982e-02 -4.057785123586654663e-02 -3.981938585638999939e-02 -3.711487725377082825e-02 -5.850089713931083679e-03 -1.979919523000717163e-02 7.282158732414245605e-02 -3.461179509758949280e-02 -8.234838955104351044e-03 -1.247581001371145248e-02 5.774544551968574524e-03 -1.713299937546253204e-02 8.112755417823791504e-02 2.044191956520080566e-02 5.407717823982238770e-02 -2.082829177379608154e-02 3.349032625555992126e-02 2.931816130876541138e-02 2.230723761022090912e-02 6.120097637176513672e-02 3.325845673680305481e-02 4.369848966598510742e-02 -6.047608330845832825e-03 -1.821556012146174908e-03 5.147447809576988220e-02 7.691161334514617920e-02 -1.317292358726263046e-02 2.676047384738922119e-02 -3.803439065814018250e-02 6.559374742209911346e-03 9.247359633445739746e-02 4.155750945210456848e-02 -4.833950847387313843e-02 -4.169958829879760742e-02 -1.861604675650596619e-02 1.701886206865310669e-02 -6.372150033712387085e-02 -4.545646253973245621e-03 7.208183407783508301e-02 -4.054383561015129089e-02 2.050236985087394714e-02 -3.256667777895927429e-02 -1.791531918570399284e-03 1.368106342852115631e-02 -4.340077191591262817e-02 -4.157030582427978516e-02 -1.116357091814279556e-02 6.123794615268707275e-02 1.004222501069307327e-02 -4.801018908619880676e-02 -1.379795931279659271e-02 -3.641289658844470978e-03 -3.288116678595542908e-02 4.581088665872812271e-03 1.180624961853027344e-01 -9.007120132446289062e-02 7.004398852586746216e-02 -3.466911241412162781e-02 -7.001229375600814819e-02 -5.520212464034557343e-03 -4.092757403850555420e-02 -6.266220659017562866e-02 2.175343967974185944e-02 -1.068002195097506046e-03 -1.599165052175521851e-02 5.297433212399482727e-02 -1.126007363200187683e-02 -2.526443302631378174e-01 -1.532621495425701141e-02 -1.902969554066658020e-02 5.444714799523353577e-02 -1.192571781575679779e-02 5.456591024994850159e-02 -2.119114436209201813e-02 -6.319731473922729492e-02 -5.846177041530609131e-02 -2.987236902117729187e-02 6.048769876360893250e-02 5.036161746829748154e-03 -1.862310245633125305e-02 -7.827267050743103027e-02 -6.125399842858314514e-02 4.133170470595359802e-02 8.955655992031097412e-02 1.855218037962913513e-02 4.985406529158353806e-03 5.879712291061878204e-03 -6.190254911780357361e-02 1.860907860100269318e-02 -1.862226403318345547e-03 4.356703162193298340e-02 1.562484204769134521e-01 -4.364892467856407166e-02 2.242018282413482666e-02 -2.369648776948451996e-02 -1.715251244604587555e-02 -1.738096401095390320e-02 8.513744920492172241e-03 3.254159912467002869e-02 -5.156505852937698364e-02 -4.077620804309844971e-02 -1.880306564271450043e-02 4.754113778471946716e-02 -7.777227461338043213e-02 3.285098075866699219e-02 5.526815727353096008e-02 5.129348486661911011e-02 3.316038101911544800e-02 -8.109204471111297607e-02 5.105598270893096924e-02 -8.115706732496619225e-04 -5.159123241901397705e-02 3.090601414442062378e-03 -2.351452410221099854e-02 -1.178326085209846497e-03 3.677040105685591698e-03 6.831580400466918945e-02 -4.872929304838180542e-02 2.938287798315286636e-03 -1.458396110683679581e-02 1.221634522080421448e-01 1.462437212467193604e-02 6.796447187662124634e-02 6.500216573476791382e-02 -4.339742660522460938e-02 -4.817549884319305420e-02 9.199534542858600616e-03 -3.413861617445945740e-02 -8.186185359954833984e-02 -6.425002217292785645e-02 -6.030648201704025269e-02 5.889178719371557236e-03 4.171397909522056580e-02 8.012575097382068634e-03 -3.731791302561759949e-02 -1.981529220938682556e-02 -1.843579299747943878e-02 -3.393261507153511047e-02 6.409907946363091469e-04 -1.025121100246906281e-02 4.053221084177494049e-03 -5.517474189400672913e-02 3.620227426290512085e-02 -1.726828143000602722e-02 -3.485121950507164001e-02 2.847759239375591278e-02 5.873608216643333435e-02 5.300482735037803650e-02 -1.458461955189704895e-02 -9.503609617240726948e-04 8.884748816490173340e-02 4.131236299872398376e-02 -4.400767385959625244e-02 9.841520339250564575e-03 -3.219526959583163261e-03 1.391229033470153809e-01 -6.506805866956710815e-02 6.774163246154785156e-02 -4.573797434568405151e-02 6.085285916924476624e-02 9.703608602285385132e-02 3.870766237378120422e-02 -3.746045380830764771e-02 6.282250583171844482e-02 5.518702045083045959e-02 -6.240302696824073792e-03 -6.344970315694808960e-02 1.835141517221927643e-02 -8.414179831743240356e-02 1.250913552939891815e-02 -1.579947955906391144e-02 7.937376946210861206e-02 6.185340136289596558e-02 -6.362323462963104248e-02 1.201915554702281952e-03 2.532382309436798096e-02 -2.193801291286945343e-02 8.028956502676010132e-02 -1.403824985027313232e-02 4.872318729758262634e-02 4.764679819345474243e-02 2.251121029257774353e-02 8.749868720769882202e-02 3.463034704327583313e-02 -5.465335398912429810e-02 7.636761665344238281e-02 -6.954132765531539917e-02 -4.533081874251365662e-02 -7.257341593503952026e-02 7.952886819839477539e-02 -6.419816613197326660e-02 6.511598080396652222e-02 3.477453812956809998e-02 5.655488371849060059e-02 -1.956697180867195129e-02 -2.697210200130939484e-02 4.315825924277305603e-02 -3.555764257907867432e-02 1.722797192633152008e-02 1.530155725777149200e-02
